{"sizes": [4, 16, 4, 1], "weights": [[[-0.5498801073533061, -1.5527012809318421, -0.76266353266569, 0.8194950703714542], [0.11312259602690294, 0.7366210088152745, -0.8813896413567265, -0.6428145844893806], [0.34274086427939243, -1.158779781383394, 0.148317965771087, 0.7655264505489332], [0.4194713110991317, -0.7616843812935871, 1.3762949831662925, -2.1408685251746755], [0.4601210259889548, 1.1064352623739495, -0.622354969652812, -0.18712862592299775], [0.3901531665730524, 0.2332213870402006, 0.7930054637572854, -1.5618239297064223], [0.28473710522958545, -0.6203740957736606, -1.5459225125143972, -1.7187496859191853], [0.1604775866249282, 1.8314177298637375, -0.2613084446993282, 1.5651045819808593], [0.9391368439498612, 0.6376833956473335, 0.9772039113990533, 0.30811415562203176], [0.7699427047294821, 1.889891127761621, 0.013860409701145998, -0.5827223065585773], [0.0920494533455043, -2.150390779082871, 1.2409929689039356, -2.2594940883525223], [0.2764241641018492, -0.6599247838481365, -1.7036328488715617, 1.6159600211855507], [-0.07875940827521671, 2.3447989327041054, -1.091460065477649, 1.385323215908816], [0.7117879430868121, 2.474884956783152, 1.4742189377175405, -0.31005276393461495], [-0.1737091980662891, -0.9388026247239148, -0.06833459816586489, -0.9937663664095902], [0.36879422396588113, -0.7316132063533392, 1.6251931637897414, 0.4803006672066699]], [[0.7585463752852486, 1.3190620997604425, 1.1896947239256408, -0.31979838543053685, -2.5059579844141293, 0.1929055455913189, 1.45492285410306, 0.6658176706614289, 0.15483603177834387, 0.8366796202961384, -0.0558455138070698, -0.1915607481018523, 0.23001949321680604, 0.640430009441502, -1.1895915749785861, 1.3774991743993912], [2.1558639401817805, -0.7717762150405738, -1.5931902509841407, 0.1744781793066932, -0.01533744953448179, -0.7913571457571087, -0.282539640203985, -0.7458775717512279, -1.0172448973491137, 1.274655093215618, 0.4449994380455779, 1.5057820056902977, 0.07256679098377647, -1.410855379977156, -0.43471844828768164, -1.1705693185348984], [-1.1463044147514774, 1.3690469236780647, 0.9770004975555755, -0.7869779348385086, -1.2589109683179156, -1.2912523941797966, 0.12097411178413162, 0.12795563905574436, -1.057504514432205, 1.2747757160153688, -2.6134542804652923, -1.006301113037065, 0.5510485686065013, 2.3221126098839466, -1.1824974067947227, 1.9476376770440418], [1.6073645117718836, 2.1157525160637145, 1.3397276917818401, 1.6331785009346134, -0.5439627470306085, -0.32992633973108865, -0.5421118035319707, -2.150804484530981, 0.07475642266930356, 0.5624039542567655, 2.410901811544839, -0.31627732932624014, -1.3026197552037855, -2.2656597966574648, 1.0878518055339832, -0.679174249536546]], [[-0.7441189782132092, 0.12534423438230574, -3.567570992835, 5.634018504848821]]], "biases": [[0.19059038779687074, -0.21859430397261304, 0.6909955902395524, 0.3502918129602417, 1.0857684025923946, -0.15391565148580227, -0.7320688687697466, -0.8002133270809629, 0.6601421175141087, -1.132671564279302, 0.66137873845389, -0.27390143034370534, -0.3375849374351928, -1.9063672505967553, 0.21294004339276945, -0.4348700724388995], [1.335544129608221, -0.4361773747642002, 0.5503650604150494, -0.3780854320614949], [-0.2958965420974028]]}